Language model created by QuickLM on Wed Apr  5 16:31:20 EDT 2023
Copyright (c) 1996-2010 Carnegie Mellon University and Alexander I. Rudnicky

The model is in standard ARPA format, designed by Doug Paul while he was at MITRE.

The code that was used to produce this language model is available in Open Source.
Please visit http://www.speech.cs.cmu.edu/tools/ for more information

The (fixed) discount mass is 0.5. The backoffs are computed using the ratio method.
This model based on a corpus of 4 sentences and 6 words

\data\
ngram 1=6
ngram 2=8
ngram 3=8

\1-grams:
-0.9031 </s> -0.3010
-0.9031 <s> -0.2430
-1.2041 CLOSE -0.2430
-1.2041 GOOGLE -0.2430
-1.2041 OPEN -0.2430
-1.2041 YOUTUBE -0.2430

\2-grams:
-0.6021 <s> CLOSE 0.0000
-0.6021 <s> OPEN 0.0000
-0.6021 CLOSE GOOGLE 0.0000
-0.6021 CLOSE YOUTUBE 0.0000
-0.3010 GOOGLE </s> -0.3010
-0.6021 OPEN GOOGLE 0.0000
-0.6021 OPEN YOUTUBE 0.0000
-0.3010 YOUTUBE </s> -0.3010

\3-grams:
-0.6021 <s> CLOSE GOOGLE
-0.6021 <s> CLOSE YOUTUBE
-0.6021 <s> OPEN GOOGLE
-0.6021 <s> OPEN YOUTUBE
-0.3010 CLOSE GOOGLE </s>
-0.3010 CLOSE YOUTUBE </s>
-0.3010 OPEN GOOGLE </s>
-0.3010 OPEN YOUTUBE </s>

\end\
